=== Run information ===

Scheme:weka.classifiers.trees.J48 -C 0.25 -M 2
Relation:     mario-Combined-word-30-weka.filters.unsupervised.attribute.Remove-R1-5,9
Instances:    1365
Attributes:   295
[list of attributes omitted]
Test mode:10-fold cross-validation

=== Classifier model (full training set) ===

J48 pruned tree
------------------

W_rescuer <= 0
|   W_gutter <= 0
|   |   W_now <= 0
|   |   |   W_town <= 0
|   |   |   |   W_building <= 0
|   |   |   |   |   W_gma <= 0
|   |   |   |   |   |   W_maliliit <= 0
|   |   |   |   |   |   |   W_kanto <= 0
|   |   |   |   |   |   |   |   W_save <= 0
|   |   |   |   |   |   |   |   |   W_tska <= 0
|   |   |   |   |   |   |   |   |   |   W_ukol <= 0
|   |   |   |   |   |   |   |   |   |   |   W_nabaha <= 0
|   |   |   |   |   |   |   |   |   |   |   |   W_families <= 0
|   |   |   |   |   |   |   |   |   |   |   |   |   W_inyong <= 0
|   |   |   |   |   |   |   |   |   |   |   |   |   |   W_hway <= 0
|   |   |   |   |   |   |   |   |   |   |   |   |   |   |   W_wla <= 0
|   |   |   |   |   |   |   |   |   |   |   |   |   |   |   |   IsHashtag <= 0
|   |   |   |   |   |   |   |   |   |   |   |   |   |   |   |   |   W_marami <= 0
|   |   |   |   |   |   |   |   |   |   |   |   |   |   |   |   |   |   W_magdulot <= 0
|   |   |   |   |   |   |   |   |   |   |   |   |   |   |   |   |   |   |   W_umiwas <= 0
|   |   |   |   |   |   |   |   |   |   |   |   |   |   |   |   |   |   |   |   W_masilungan <= 0
|   |   |   |   |   |   |   |   |   |   |   |   |   |   |   |   |   |   |   |   |   W_sang <= 0
|   |   |   |   |   |   |   |   |   |   |   |   |   |   |   |   |   |   |   |   |   |   W_area <= 0
|   |   |   |   |   |   |   |   |   |   |   |   |   |   |   |   |   |   |   |   |   |   |   W_limay <= 0
|   |   |   |   |   |   |   |   |   |   |   |   |   |   |   |   |   |   |   |   |   |   |   |   IsUrl <= 0
|   |   |   |   |   |   |   |   |   |   |   |   |   |   |   |   |   |   |   |   |   |   |   |   |   W_sainyo <= 0
|   |   |   |   |   |   |   |   |   |   |   |   |   |   |   |   |   |   |   |   |   |   |   |   |   |   W_kami <= 0
|   |   |   |   |   |   |   |   |   |   |   |   |   |   |   |   |   |   |   |   |   |   |   |   |   |   |   W_you <= 0
|   |   |   |   |   |   |   |   |   |   |   |   |   |   |   |   |   |   |   |   |   |   |   |   |   |   |   |   Length <= 5
|   |   |   |   |   |   |   |   |   |   |   |   |   |   |   |   |   |   |   |   |   |   |   |   |   |   |   |   |   W_around <= 0
|   |   |   |   |   |   |   |   |   |   |   |   |   |   |   |   |   |   |   |   |   |   |   |   |   |   |   |   |   |   W_school <= 0: O (29.0/8.0)
|   |   |   |   |   |   |   |   |   |   |   |   |   |   |   |   |   |   |   |   |   |   |   |   |   |   |   |   |   |   W_school > 0: CA (2.0)
|   |   |   |   |   |   |   |   |   |   |   |   |   |   |   |   |   |   |   |   |   |   |   |   |   |   |   |   |   W_around > 0: CA (2.0)
|   |   |   |   |   |   |   |   |   |   |   |   |   |   |   |   |   |   |   |   |   |   |   |   |   |   |   |   Length > 5: O (253.0/43.0)
|   |   |   |   |   |   |   |   |   |   |   |   |   |   |   |   |   |   |   |   |   |   |   |   |   |   |   W_you > 0
|   |   |   |   |   |   |   |   |   |   |   |   |   |   |   |   |   |   |   |   |   |   |   |   |   |   |   |   Length <= 10: CA (3.0)
|   |   |   |   |   |   |   |   |   |   |   |   |   |   |   |   |   |   |   |   |   |   |   |   |   |   |   |   Length > 10: O (25.0/2.0)
|   |   |   |   |   |   |   |   |   |   |   |   |   |   |   |   |   |   |   |   |   |   |   |   |   |   W_kami > 0
|   |   |   |   |   |   |   |   |   |   |   |   |   |   |   |   |   |   |   |   |   |   |   |   |   |   |   W_bago <= 0: O (19.0/2.0)
|   |   |   |   |   |   |   |   |   |   |   |   |   |   |   |   |   |   |   |   |   |   |   |   |   |   |   W_bago > 0: CA (3.0)
|   |   |   |   |   |   |   |   |   |   |   |   |   |   |   |   |   |   |   |   |   |   |   |   |   W_sainyo > 0
|   |   |   |   |   |   |   |   |   |   |   |   |   |   |   |   |   |   |   |   |   |   |   |   |   |   W_road <= 0: O (7.0/2.0)
|   |   |   |   |   |   |   |   |   |   |   |   |   |   |   |   |   |   |   |   |   |   |   |   |   |   W_road > 0: CA (5.0/1.0)
|   |   |   |   |   |   |   |   |   |   |   |   |   |   |   |   |   |   |   |   |   |   |   |   IsUrl > 0
|   |   |   |   |   |   |   |   |   |   |   |   |   |   |   |   |   |   |   |   |   |   |   |   |   W_pls <= 0
|   |   |   |   |   |   |   |   |   |   |   |   |   |   |   |   |   |   |   |   |   |   |   |   |   |   W_isang <= 0
|   |   |   |   |   |   |   |   |   |   |   |   |   |   |   |   |   |   |   |   |   |   |   |   |   |   |   W_facilitate <= 0
|   |   |   |   |   |   |   |   |   |   |   |   |   |   |   |   |   |   |   |   |   |   |   |   |   |   |   |   W_kami <= 0
|   |   |   |   |   |   |   |   |   |   |   |   |   |   |   |   |   |   |   |   |   |   |   |   |   |   |   |   |   W_kanina <= 0
|   |   |   |   |   |   |   |   |   |   |   |   |   |   |   |   |   |   |   |   |   |   |   |   |   |   |   |   |   |   W_blvd <= 0
|   |   |   |   |   |   |   |   |   |   |   |   |   |   |   |   |   |   |   |   |   |   |   |   |   |   |   |   |   |   |   W_isla <= 0
|   |   |   |   |   |   |   |   |   |   |   |   |   |   |   |   |   |   |   |   |   |   |   |   |   |   |   |   |   |   |   |   W_pinapansin <= 0
|   |   |   |   |   |   |   |   |   |   |   |   |   |   |   |   |   |   |   |   |   |   |   |   |   |   |   |   |   |   |   |   |   W_slex <= 0
|   |   |   |   |   |   |   |   |   |   |   |   |   |   |   |   |   |   |   |   |   |   |   |   |   |   |   |   |   |   |   |   |   |   W_dear <= 0
|   |   |   |   |   |   |   |   |   |   |   |   |   |   |   |   |   |   |   |   |   |   |   |   |   |   |   |   |   |   |   |   |   |   |   W_evac <= 0
|   |   |   |   |   |   |   |   |   |   |   |   |   |   |   |   |   |   |   |   |   |   |   |   |   |   |   |   |   |   |   |   |   |   |   |   W_everyone <= 0: O (132.0/28.0)
|   |   |   |   |   |   |   |   |   |   |   |   |   |   |   |   |   |   |   |   |   |   |   |   |   |   |   |   |   |   |   |   |   |   |   |   W_everyone > 0: CA (2.0)
|   |   |   |   |   |   |   |   |   |   |   |   |   |   |   |   |   |   |   |   |   |   |   |   |   |   |   |   |   |   |   |   |   |   |   W_evac > 0: CA (2.0)
|   |   |   |   |   |   |   |   |   |   |   |   |   |   |   |   |   |   |   |   |   |   |   |   |   |   |   |   |   |   |   |   |   |   W_dear > 0: CA (2.0)
|   |   |   |   |   |   |   |   |   |   |   |   |   |   |   |   |   |   |   |   |   |   |   |   |   |   |   |   |   |   |   |   |   W_slex > 0: CA (5.0/1.0)
|   |   |   |   |   |   |   |   |   |   |   |   |   |   |   |   |   |   |   |   |   |   |   |   |   |   |   |   |   |   |   |   W_pinapansin > 0: CA (3.0)
|   |   |   |   |   |   |   |   |   |   |   |   |   |   |   |   |   |   |   |   |   |   |   |   |   |   |   |   |   |   |   W_isla > 0: CA (3.0)
|   |   |   |   |   |   |   |   |   |   |   |   |   |   |   |   |   |   |   |   |   |   |   |   |   |   |   |   |   |   W_blvd > 0: CA (3.0)
|   |   |   |   |   |   |   |   |   |   |   |   |   |   |   |   |   |   |   |   |   |   |   |   |   |   |   |   |   W_kanina > 0
|   |   |   |   |   |   |   |   |   |   |   |   |   |   |   |   |   |   |   |   |   |   |   |   |   |   |   |   |   |   W_of <= 0: O (30.0/4.0)
|   |   |   |   |   |   |   |   |   |   |   |   |   |   |   |   |   |   |   |   |   |   |   |   |   |   |   |   |   |   W_of > 0: CH (2.0)
|   |   |   |   |   |   |   |   |   |   |   |   |   |   |   |   |   |   |   |   |   |   |   |   |   |   |   |   W_kami > 0: CA (13.0/1.0)
|   |   |   |   |   |   |   |   |   |   |   |   |   |   |   |   |   |   |   |   |   |   |   |   |   |   |   W_facilitate > 0: CA (4.0)
|   |   |   |   |   |   |   |   |   |   |   |   |   |   |   |   |   |   |   |   |   |   |   |   |   |   W_isang > 0: CH (8.0/1.0)
|   |   |   |   |   |   |   |   |   |   |   |   |   |   |   |   |   |   |   |   |   |   |   |   |   W_pls > 0: CH (8.0/3.0)
|   |   |   |   |   |   |   |   |   |   |   |   |   |   |   |   |   |   |   |   |   |   |   W_limay > 0
|   |   |   |   |   |   |   |   |   |   |   |   |   |   |   |   |   |   |   |   |   |   |   |   Length <= 13: CA (7.0)
|   |   |   |   |   |   |   |   |   |   |   |   |   |   |   |   |   |   |   |   |   |   |   |   Length > 13: O (4.0)
|   |   |   |   |   |   |   |   |   |   |   |   |   |   |   |   |   |   |   |   |   |   W_area > 0
|   |   |   |   |   |   |   |   |   |   |   |   |   |   |   |   |   |   |   |   |   |   |   IsUrl <= 0: O (7.0/1.0)
|   |   |   |   |   |   |   |   |   |   |   |   |   |   |   |   |   |   |   |   |   |   |   IsUrl > 0: CA (9.0/3.0)
|   |   |   |   |   |   |   |   |   |   |   |   |   |   |   |   |   |   |   |   |   W_sang > 0
|   |   |   |   |   |   |   |   |   |   |   |   |   |   |   |   |   |   |   |   |   |   W_brgy <= 0: CA (23.0/7.0)
|   |   |   |   |   |   |   |   |   |   |   |   |   |   |   |   |   |   |   |   |   |   W_brgy > 0: O (2.0)
|   |   |   |   |   |   |   |   |   |   |   |   |   |   |   |   |   |   |   |   W_masilungan > 0
|   |   |   |   |   |   |   |   |   |   |   |   |   |   |   |   |   |   |   |   |   W_district <= 0
|   |   |   |   |   |   |   |   |   |   |   |   |   |   |   |   |   |   |   |   |   |   IsUrl <= 0: O (2.0)
|   |   |   |   |   |   |   |   |   |   |   |   |   |   |   |   |   |   |   |   |   |   IsUrl > 0
|   |   |   |   |   |   |   |   |   |   |   |   |   |   |   |   |   |   |   |   |   |   |   W_kawawa <= 0: CA (7.0/1.0)
|   |   |   |   |   |   |   |   |   |   |   |   |   |   |   |   |   |   |   |   |   |   |   W_kawawa > 0: O (2.0)
|   |   |   |   |   |   |   |   |   |   |   |   |   |   |   |   |   |   |   |   |   W_district > 0: CD (2.0)
|   |   |   |   |   |   |   |   |   |   |   |   |   |   |   |   |   |   |   W_umiwas > 0
|   |   |   |   |   |   |   |   |   |   |   |   |   |   |   |   |   |   |   |   W_matinding <= 0
|   |   |   |   |   |   |   |   |   |   |   |   |   |   |   |   |   |   |   |   |   W_friends <= 0
|   |   |   |   |   |   |   |   |   |   |   |   |   |   |   |   |   |   |   |   |   |   IsUrl <= 0: O (2.0)
|   |   |   |   |   |   |   |   |   |   |   |   |   |   |   |   |   |   |   |   |   |   IsUrl > 0
|   |   |   |   |   |   |   |   |   |   |   |   |   |   |   |   |   |   |   |   |   |   |   Length <= 24: CH (3.0)
|   |   |   |   |   |   |   |   |   |   |   |   |   |   |   |   |   |   |   |   |   |   |   Length > 24: O (3.0/1.0)
|   |   |   |   |   |   |   |   |   |   |   |   |   |   |   |   |   |   |   |   |   W_friends > 0: CH (2.0/1.0)
|   |   |   |   |   |   |   |   |   |   |   |   |   |   |   |   |   |   |   |   W_matinding > 0: D (2.0)
|   |   |   |   |   |   |   |   |   |   |   |   |   |   |   |   |   |   W_magdulot > 0
|   |   |   |   |   |   |   |   |   |   |   |   |   |   |   |   |   |   |   W_mahigit <= 0
|   |   |   |   |   |   |   |   |   |   |   |   |   |   |   |   |   |   |   |   W_paglusong <= 0: CA (9.0)
|   |   |   |   |   |   |   |   |   |   |   |   |   |   |   |   |   |   |   |   W_paglusong > 0: CD (2.0)
|   |   |   |   |   |   |   |   |   |   |   |   |   |   |   |   |   |   |   W_mahigit > 0: O (2.0)
|   |   |   |   |   |   |   |   |   |   |   |   |   |   |   |   |   W_marami > 0: CA (14.0/1.0)
|   |   |   |   |   |   |   |   |   |   |   |   |   |   |   |   IsHashtag > 0
|   |   |   |   |   |   |   |   |   |   |   |   |   |   |   |   |   W_reinforce <= 0
|   |   |   |   |   |   |   |   |   |   |   |   |   |   |   |   |   |   W_davao <= 0
|   |   |   |   |   |   |   |   |   |   |   |   |   |   |   |   |   |   |   W_bahang <= 0
|   |   |   |   |   |   |   |   |   |   |   |   |   |   |   |   |   |   |   |   W_red <= 0
|   |   |   |   |   |   |   |   |   |   |   |   |   |   |   |   |   |   |   |   |   W_babala <= 0
|   |   |   |   |   |   |   |   |   |   |   |   |   |   |   |   |   |   |   |   |   |   W_high <= 0
|   |   |   |   |   |   |   |   |   |   |   |   |   |   |   |   |   |   |   |   |   |   |   W_sitwasyon <= 0
|   |   |   |   |   |   |   |   |   |   |   |   |   |   |   |   |   |   |   |   |   |   |   |   W_stop <= 0
|   |   |   |   |   |   |   |   |   |   |   |   |   |   |   |   |   |   |   |   |   |   |   |   |   W_area <= 0
|   |   |   |   |   |   |   |   |   |   |   |   |   |   |   |   |   |   |   |   |   |   |   |   |   |   W_kahabaan <= 0
|   |   |   |   |   |   |   |   |   |   |   |   |   |   |   |   |   |   |   |   |   |   |   |   |   |   |   W_kanina <= 0
|   |   |   |   |   |   |   |   |   |   |   |   |   |   |   |   |   |   |   |   |   |   |   |   |   |   |   |   W_road <= 0: O (30.0/7.0)
|   |   |   |   |   |   |   |   |   |   |   |   |   |   |   |   |   |   |   |   |   |   |   |   |   |   |   |   W_road > 0: CA (2.0)
|   |   |   |   |   |   |   |   |   |   |   |   |   |   |   |   |   |   |   |   |   |   |   |   |   |   |   W_kanina > 0: CA (2.0)
|   |   |   |   |   |   |   |   |   |   |   |   |   |   |   |   |   |   |   |   |   |   |   |   |   |   W_kahabaan > 0: O (3.0)
|   |   |   |   |   |   |   |   |   |   |   |   |   |   |   |   |   |   |   |   |   |   |   |   |   W_area > 0: CA (9.0/2.0)
|   |   |   |   |   |   |   |   |   |   |   |   |   |   |   |   |   |   |   |   |   |   |   |   W_stop > 0: CA (2.0)
|   |   |   |   |   |   |   |   |   |   |   |   |   |   |   |   |   |   |   |   |   |   |   W_sitwasyon > 0: CA (2.0)
|   |   |   |   |   |   |   |   |   |   |   |   |   |   |   |   |   |   |   |   |   |   W_high > 0: CA (2.0)
|   |   |   |   |   |   |   |   |   |   |   |   |   |   |   |   |   |   |   |   |   W_babala > 0: CA (2.0)
|   |   |   |   |   |   |   |   |   |   |   |   |   |   |   |   |   |   |   |   W_red > 0: CA (3.0)
|   |   |   |   |   |   |   |   |   |   |   |   |   |   |   |   |   |   |   W_bahang > 0: CA (9.0)
|   |   |   |   |   |   |   |   |   |   |   |   |   |   |   |   |   |   W_davao > 0: D (2.0)
|   |   |   |   |   |   |   |   |   |   |   |   |   |   |   |   |   W_reinforce > 0: CD (9.0)
|   |   |   |   |   |   |   |   |   |   |   |   |   |   |   W_wla > 0
|   |   |   |   |   |   |   |   |   |   |   |   |   |   |   |   W_ginawa <= 0
|   |   |   |   |   |   |   |   |   |   |   |   |   |   |   |   |   W_kami <= 0
|   |   |   |   |   |   |   |   |   |   |   |   |   |   |   |   |   |   Length <= 24: O (4.0/1.0)
|   |   |   |   |   |   |   |   |   |   |   |   |   |   |   |   |   |   Length > 24: CA (3.0)
|   |   |   |   |   |   |   |   |   |   |   |   |   |   |   |   |   W_kami > 0: CA (6.0)
|   |   |   |   |   |   |   |   |   |   |   |   |   |   |   |   W_ginawa > 0: CD (2.0)
|   |   |   |   |   |   |   |   |   |   |   |   |   |   W_hway > 0
|   |   |   |   |   |   |   |   |   |   |   |   |   |   |   IsUrl <= 0: O (4.0)
|   |   |   |   |   |   |   |   |   |   |   |   |   |   |   IsUrl > 0
|   |   |   |   |   |   |   |   |   |   |   |   |   |   |   |   Length <= 23: CA (7.0)
|   |   |   |   |   |   |   |   |   |   |   |   |   |   |   |   Length > 23: D (5.0/1.0)
|   |   |   |   |   |   |   |   |   |   |   |   |   W_inyong > 0
|   |   |   |   |   |   |   |   |   |   |   |   |   |   W_binti <= 0
|   |   |   |   |   |   |   |   |   |   |   |   |   |   |   W_water <= 0: O (18.0/2.0)
|   |   |   |   |   |   |   |   |   |   |   |   |   |   |   W_water > 0: CA (4.0)
|   |   |   |   |   |   |   |   |   |   |   |   |   |   W_binti > 0
|   |   |   |   |   |   |   |   |   |   |   |   |   |   |   Length <= 19: CH (4.0/2.0)
|   |   |   |   |   |   |   |   |   |   |   |   |   |   |   Length > 19: D (8.0)
|   |   |   |   |   |   |   |   |   |   |   |   W_families > 0
|   |   |   |   |   |   |   |   |   |   |   |   |   W_of <= 0
|   |   |   |   |   |   |   |   |   |   |   |   |   |   IsUrl <= 0: O (3.0/1.0)
|   |   |   |   |   |   |   |   |   |   |   |   |   |   IsUrl > 0: CA (45.0)
|   |   |   |   |   |   |   |   |   |   |   |   |   W_of > 0: CH (3.0)
|   |   |   |   |   |   |   |   |   |   |   W_nabaha > 0
|   |   |   |   |   |   |   |   |   |   |   |   W_blogger <= 0
|   |   |   |   |   |   |   |   |   |   |   |   |   W_slex <= 0: CA (24.0/3.0)
|   |   |   |   |   |   |   |   |   |   |   |   |   W_slex > 0: O (3.0)
|   |   |   |   |   |   |   |   |   |   |   |   W_blogger > 0: CH (4.0)
|   |   |   |   |   |   |   |   |   |   W_ukol > 0
|   |   |   |   |   |   |   |   |   |   |   W_question <= 0: CA (24.0)
|   |   |   |   |   |   |   |   |   |   |   W_question > 0: O (4.0)
|   |   |   |   |   |   |   |   |   W_tska > 0
|   |   |   |   |   |   |   |   |   |   IsHashtag <= 0: CA (8.0/1.0)
|   |   |   |   |   |   |   |   |   |   IsHashtag > 0
|   |   |   |   |   |   |   |   |   |   |   Length <= 13: D (3.0)
|   |   |   |   |   |   |   |   |   |   |   Length > 13: CA (8.0)
|   |   |   |   |   |   |   |   W_save > 0
|   |   |   |   |   |   |   |   |   W_habang <= 0
|   |   |   |   |   |   |   |   |   |   W_red <= 0: CA (64.0/3.0)
|   |   |   |   |   |   |   |   |   |   W_red > 0: O (2.0)
|   |   |   |   |   |   |   |   |   W_habang > 0: CD (2.0/1.0)
|   |   |   |   |   |   |   W_kanto > 0: CA (34.0/1.0)
|   |   |   |   |   |   W_maliliit > 0
|   |   |   |   |   |   |   IsHashtag <= 0
|   |   |   |   |   |   |   |   IsUrl <= 0: CA (2.0)
|   |   |   |   |   |   |   |   IsUrl > 0
|   |   |   |   |   |   |   |   |   W_friends <= 0: O (3.0)
|   |   |   |   |   |   |   |   |   W_friends > 0: CH (13.0)
|   |   |   |   |   |   |   IsHashtag > 0: D (3.0)
|   |   |   |   |   W_gma > 0
|   |   |   |   |   |   W_just <= 0: CA (66.0/1.0)
|   |   |   |   |   |   W_just > 0: D (3.0/1.0)
|   |   |   |   W_building > 0: CA (39.0)
|   |   |   W_town > 0
|   |   |   |   W_district <= 0
|   |   |   |   |   W_dulot <= 0
|   |   |   |   |   |   W_bago <= 0: CA (34.0/1.0)
|   |   |   |   |   |   W_bago > 0: D (3.0)
|   |   |   |   |   W_dulot > 0: D (9.0)
|   |   |   |   W_district > 0: CD (2.0/1.0)
|   |   W_now > 0
|   |   |   W_contact <= 0
|   |   |   |   Length <= 19
|   |   |   |   |   Length <= 16: CA (3.0)
|   |   |   |   |   Length > 16: CD (4.0)
|   |   |   |   Length > 19: CA (63.0/1.0)
|   |   |   W_contact > 0: CD (3.0)
|   W_gutter > 0: CH (46.0/1.0)
W_rescuer > 0: CD (27.0/1.0)

Number of Leaves  : 	99

Size of the tree : 	197


Time taken to build model: 2.31 seconds

=== Stratified cross-validation ===
=== Summary ===

Correctly Classified Instances        1098               80.4396 %
Incorrectly Classified Instances       267               19.5604 %
Kappa statistic                          0.6848
Mean absolute error                      0.1007
Root mean squared error                  0.2518
Relative absolute error                 40.237  %
Root relative squared error             71.2304 %
Total Number of Instances             1365     

=== Detailed Accuracy By Class ===

               TP Rate   FP Rate   Precision   Recall  F-Measure   ROC Area  Class
                 0.617     0.005      0.806     0.617     0.699      0.955    D
                 0.655     0.002      0.927     0.655     0.768      0.9      CD
                 0.758     0.009      0.872     0.758     0.811      0.902    CH
                 0.768     0.106      0.868     0.768     0.815      0.876    CA
                 0.894     0.199      0.728     0.894     0.803      0.883    O
Weighted Avg.    0.804     0.126      0.817     0.804     0.804      0.885

=== Confusion Matrix ===

   a   b   c   d   e   <-- classified as
  29   0   2   8   8 |   a = D
   1  38   1   7  11 |   b = CD
   2   3  75  11   8 |   c = CH
   2   0   6 500 143 |   d = CA
   2   0   2  50 456 |   e = O

