=== Run information ===

Scheme:weka.classifiers.trees.J48 -C 0.25 -M 2
Relation:     ruby-combined-30-weka.filters.unsupervised.attribute.Remove-R1-3
Instances:    2303
Attributes:   1026
[list of attributes omitted]
Test mode:10-fold cross-validation

=== Classifier model (full training set) ===

J48 pruned tree
------------------

IsHashtag <= 0: O (692.0)
IsHashtag > 0
|   W_nananatiling <= 0
|   |   W_presyo <= 0
|   |   |   W_nakapasok <= 0
|   |   |   |   W_28,000 <= 0
|   |   |   |   |   IsURL <= 0
|   |   |   |   |   |   IsRetweet <= 0
|   |   |   |   |   |   |   W_australia <= 0
|   |   |   |   |   |   |   |   W_implikasyon <= 0
|   |   |   |   |   |   |   |   |   W_dumaan <= 0
|   |   |   |   |   |   |   |   |   |   W_#quoteoftheday <= 0
|   |   |   |   |   |   |   |   |   |   |   W_3am <= 0
|   |   |   |   |   |   |   |   |   |   |   |   W_13kph-15kph <= 0
|   |   |   |   |   |   |   |   |   |   |   |   |   W_magkaiba <= 0
|   |   |   |   |   |   |   |   |   |   |   |   |   |   W_ncjr <= 0
|   |   |   |   |   |   |   |   |   |   |   |   |   |   |   W_sadyang <= 0
|   |   |   |   |   |   |   |   |   |   |   |   |   |   |   |   W_5am <= 0
|   |   |   |   |   |   |   |   |   |   |   |   |   |   |   |   |   W_ann <= 0
|   |   |   |   |   |   |   |   |   |   |   |   |   |   |   |   |   |   W_km <= 0
|   |   |   |   |   |   |   |   |   |   |   |   |   |   |   |   |   |   |   W_lalapitan <= 0
|   |   |   |   |   |   |   |   |   |   |   |   |   |   |   |   |   |   |   |   W_river <= 0
|   |   |   |   |   |   |   |   |   |   |   |   |   |   |   |   |   |   |   |   |   W_fresnedi <= 0
|   |   |   |   |   |   |   |   |   |   |   |   |   |   |   |   |   |   |   |   |   |   W_pa-west <= 0
|   |   |   |   |   |   |   |   |   |   |   |   |   |   |   |   |   |   |   |   |   |   |   W_halos <= 0
|   |   |   |   |   |   |   |   |   |   |   |   |   |   |   |   |   |   |   |   |   |   |   |   Length <= 16: O (72.0/8.0)
|   |   |   |   |   |   |   |   |   |   |   |   |   |   |   |   |   |   |   |   |   |   |   |   Length > 16
|   |   |   |   |   |   |   |   |   |   |   |   |   |   |   |   |   |   |   |   |   |   |   |   |   W_luv <= 0
|   |   |   |   |   |   |   |   |   |   |   |   |   |   |   |   |   |   |   |   |   |   |   |   |   |   W_#imready <= 0
|   |   |   |   |   |   |   |   |   |   |   |   |   |   |   |   |   |   |   |   |   |   |   |   |   |   |   W_intense <= 0
|   |   |   |   |   |   |   |   |   |   |   |   |   |   |   |   |   |   |   |   |   |   |   |   |   |   |   |   W_nasaktan <= 0
|   |   |   |   |   |   |   |   |   |   |   |   |   |   |   |   |   |   |   |   |   |   |   |   |   |   |   |   |   W_court <= 0
|   |   |   |   |   |   |   |   |   |   |   |   |   |   |   |   |   |   |   |   |   |   |   |   |   |   |   |   |   |   W_matinding <= 0
|   |   |   |   |   |   |   |   |   |   |   |   |   |   |   |   |   |   |   |   |   |   |   |   |   |   |   |   |   |   |   Length <= 26: O (34.0/9.0)
|   |   |   |   |   |   |   |   |   |   |   |   |   |   |   |   |   |   |   |   |   |   |   |   |   |   |   |   |   |   |   Length > 26
|   |   |   |   |   |   |   |   |   |   |   |   |   |   |   |   |   |   |   |   |   |   |   |   |   |   |   |   |   |   |   |   W_lumapit <= 0: CA (7.0/3.0)
|   |   |   |   |   |   |   |   |   |   |   |   |   |   |   |   |   |   |   |   |   |   |   |   |   |   |   |   |   |   |   |   W_lumapit > 0: O (2.0)
|   |   |   |   |   |   |   |   |   |   |   |   |   |   |   |   |   |   |   |   |   |   |   |   |   |   |   |   |   |   W_matinding > 0: CA (2.0/1.0)
|   |   |   |   |   |   |   |   |   |   |   |   |   |   |   |   |   |   |   |   |   |   |   |   |   |   |   |   |   W_court > 0: CA (2.0/1.0)
|   |   |   |   |   |   |   |   |   |   |   |   |   |   |   |   |   |   |   |   |   |   |   |   |   |   |   |   W_nasaktan > 0: CD (2.0)
|   |   |   |   |   |   |   |   |   |   |   |   |   |   |   |   |   |   |   |   |   |   |   |   |   |   |   W_intense > 0: CD (2.0)
|   |   |   |   |   |   |   |   |   |   |   |   |   |   |   |   |   |   |   |   |   |   |   |   |   |   W_#imready > 0: CD (2.0)
|   |   |   |   |   |   |   |   |   |   |   |   |   |   |   |   |   |   |   |   |   |   |   |   |   W_luv > 0: D (2.0)
|   |   |   |   |   |   |   |   |   |   |   |   |   |   |   |   |   |   |   |   |   |   |   W_halos > 0: CA (3.0/2.0)
|   |   |   |   |   |   |   |   |   |   |   |   |   |   |   |   |   |   |   |   |   |   W_pa-west > 0: CD (4.0/1.0)
|   |   |   |   |   |   |   |   |   |   |   |   |   |   |   |   |   |   |   |   |   W_fresnedi > 0: CD (3.0)
|   |   |   |   |   |   |   |   |   |   |   |   |   |   |   |   |   |   |   |   W_river > 0: CD (4.0)
|   |   |   |   |   |   |   |   |   |   |   |   |   |   |   |   |   |   |   W_lalapitan > 0: CD (4.0)
|   |   |   |   |   |   |   |   |   |   |   |   |   |   |   |   |   |   W_km > 0: CA (3.0)
|   |   |   |   |   |   |   |   |   |   |   |   |   |   |   |   |   W_ann > 0: CD (4.0)
|   |   |   |   |   |   |   |   |   |   |   |   |   |   |   |   W_5am > 0: CD (4.0/2.0)
|   |   |   |   |   |   |   |   |   |   |   |   |   |   |   W_sadyang > 0: CD (6.0)
|   |   |   |   |   |   |   |   |   |   |   |   |   |   W_ncjr > 0: CD (6.0)
|   |   |   |   |   |   |   |   |   |   |   |   |   W_magkaiba > 0: CD (8.0)
|   |   |   |   |   |   |   |   |   |   |   |   W_13kph-15kph > 0
|   |   |   |   |   |   |   |   |   |   |   |   |   W_batan <= 0: CD (2.0)
|   |   |   |   |   |   |   |   |   |   |   |   |   W_batan > 0: CH (2.0)
|   |   |   |   |   |   |   |   |   |   |   W_3am > 0: CA (4.0)
|   |   |   |   |   |   |   |   |   |   W_#quoteoftheday > 0: CA (4.0)
|   |   |   |   |   |   |   |   |   W_dumaan > 0: D (4.0/1.0)
|   |   |   |   |   |   |   |   W_implikasyon > 0: CH (4.0/1.0)
|   |   |   |   |   |   |   W_australia > 0: CA (9.0)
|   |   |   |   |   |   IsRetweet > 0
|   |   |   |   |   |   |   W_per <= 0
|   |   |   |   |   |   |   |   W_lalapitan <= 0
|   |   |   |   |   |   |   |   |   W_halos <= 0
|   |   |   |   |   |   |   |   |   |   W_hanging <= 0
|   |   |   |   |   |   |   |   |   |   |   Length <= 20
|   |   |   |   |   |   |   |   |   |   |   |   W_kalakasan <= 0
|   |   |   |   |   |   |   |   |   |   |   |   |   W_aklan <= 0
|   |   |   |   |   |   |   |   |   |   |   |   |   |   W_|via <= 0
|   |   |   |   |   |   |   |   |   |   |   |   |   |   |   W_relief <= 0
|   |   |   |   |   |   |   |   |   |   |   |   |   |   |   |   W_southeast <= 0
|   |   |   |   |   |   |   |   |   |   |   |   |   |   |   |   |   W_muna <= 0
|   |   |   |   |   |   |   |   |   |   |   |   |   |   |   |   |   |   Length <= 14: O (5.0)
|   |   |   |   |   |   |   |   |   |   |   |   |   |   |   |   |   |   Length > 14: CA (54.0/6.0)
|   |   |   |   |   |   |   |   |   |   |   |   |   |   |   |   |   W_muna > 0: O (3.0)
|   |   |   |   |   |   |   |   |   |   |   |   |   |   |   |   W_southeast > 0: O (7.0)
|   |   |   |   |   |   |   |   |   |   |   |   |   |   |   W_relief > 0: O (14.0)
|   |   |   |   |   |   |   |   |   |   |   |   |   |   W_|via > 0: CD (3.0)
|   |   |   |   |   |   |   |   |   |   |   |   |   W_aklan > 0: CD (4.0)
|   |   |   |   |   |   |   |   |   |   |   |   W_kalakasan > 0: CH (7.0)
|   |   |   |   |   |   |   |   |   |   |   Length > 20
|   |   |   |   |   |   |   |   |   |   |   |   W_topples <= 0
|   |   |   |   |   |   |   |   |   |   |   |   |   W_occidental <= 0
|   |   |   |   |   |   |   |   |   |   |   |   |   |   Length <= 28
|   |   |   |   |   |   |   |   |   |   |   |   |   |   |   W_@scph_pio <= 0
|   |   |   |   |   |   |   |   |   |   |   |   |   |   |   |   W_retweet <= 0
|   |   |   |   |   |   |   |   |   |   |   |   |   |   |   |   |   W_lumapit <= 0
|   |   |   |   |   |   |   |   |   |   |   |   |   |   |   |   |   |   W_daw <= 0: CA (317.0/4.0)
|   |   |   |   |   |   |   |   |   |   |   |   |   |   |   |   |   |   W_daw > 0: O (2.0)
|   |   |   |   |   |   |   |   |   |   |   |   |   |   |   |   |   W_lumapit > 0: O (5.0)
|   |   |   |   |   |   |   |   |   |   |   |   |   |   |   |   W_retweet > 0: CD (5.0/1.0)
|   |   |   |   |   |   |   |   |   |   |   |   |   |   |   W_@scph_pio > 0: D (6.0)
|   |   |   |   |   |   |   |   |   |   |   |   |   |   Length > 28: CA (499.0/2.0)
|   |   |   |   |   |   |   |   |   |   |   |   |   W_occidental > 0
|   |   |   |   |   |   |   |   |   |   |   |   |   |   W_.. <= 0: CA (16.0)
|   |   |   |   |   |   |   |   |   |   |   |   |   |   W_.. > 0: CH (3.0)
|   |   |   |   |   |   |   |   |   |   |   |   W_topples > 0
|   |   |   |   |   |   |   |   |   |   |   |   |   W_#southalerts <= 0
|   |   |   |   |   |   |   |   |   |   |   |   |   |   W_almost <= 0
|   |   |   |   |   |   |   |   |   |   |   |   |   |   |   W_13kph-15kph <= 0: CA (24.0)
|   |   |   |   |   |   |   |   |   |   |   |   |   |   |   W_13kph-15kph > 0: CD (2.0)
|   |   |   |   |   |   |   |   |   |   |   |   |   |   W_almost > 0: CD (3.0)
|   |   |   |   |   |   |   |   |   |   |   |   |   W_#southalerts > 0: CD (3.0)
|   |   |   |   |   |   |   |   |   |   W_hanging > 0
|   |   |   |   |   |   |   |   |   |   |   W_by <= 0
|   |   |   |   |   |   |   |   |   |   |   |   W_13kph-15kph <= 0
|   |   |   |   |   |   |   |   |   |   |   |   |   W_matinding <= 0
|   |   |   |   |   |   |   |   |   |   |   |   |   |   W_[ <= 0: O (13.0/1.0)
|   |   |   |   |   |   |   |   |   |   |   |   |   |   W_[ > 0: CA (2.0)
|   |   |   |   |   |   |   |   |   |   |   |   |   W_matinding > 0: CA (3.0)
|   |   |   |   |   |   |   |   |   |   |   |   W_13kph-15kph > 0: CH (4.0)
|   |   |   |   |   |   |   |   |   |   |   W_by > 0: D (2.0)
|   |   |   |   |   |   |   |   |   W_halos > 0
|   |   |   |   |   |   |   |   |   |   W_3am <= 0
|   |   |   |   |   |   |   |   |   |   |   W_detalye <= 0: CD (11.0)
|   |   |   |   |   |   |   |   |   |   |   W_detalye > 0: CA (2.0)
|   |   |   |   |   |   |   |   |   |   W_3am > 0: CA (18.0)
|   |   |   |   |   |   |   |   W_lalapitan > 0
|   |   |   |   |   |   |   |   |   W_@radyopatrol44 <= 0
|   |   |   |   |   |   |   |   |   |   W_@akosijaysent <= 0
|   |   |   |   |   |   |   |   |   |   |   W_@gepelyle <= 0: CA (14.0/2.0)
|   |   |   |   |   |   |   |   |   |   |   W_@gepelyle > 0: CD (3.0)
|   |   |   |   |   |   |   |   |   |   W_@akosijaysent > 0: CD (6.0)
|   |   |   |   |   |   |   |   |   W_@radyopatrol44 > 0: CH (9.0)
|   |   |   |   |   |   |   W_per > 0
|   |   |   |   |   |   |   |   W_alon <= 0: CA (20.0)
|   |   |   |   |   |   |   |   W_alon > 0: D (15.0)
|   |   |   |   |   IsURL > 0
|   |   |   |   |   |   W_linya <= 0
|   |   |   |   |   |   |   W_komunikasyon <= 0
|   |   |   |   |   |   |   |   W_8pm <= 0
|   |   |   |   |   |   |   |   |   W_kailan <= 0
|   |   |   |   |   |   |   |   |   |   W_ahaha <= 0
|   |   |   |   |   |   |   |   |   |   |   W_southeast <= 0
|   |   |   |   |   |   |   |   |   |   |   |   W_hanging <= 0
|   |   |   |   |   |   |   |   |   |   |   |   |   W_mag-landfall <= 0
|   |   |   |   |   |   |   |   |   |   |   |   |   |   W_supertyphoon <= 0
|   |   |   |   |   |   |   |   |   |   |   |   |   |   |   Length <= 14
|   |   |   |   |   |   |   |   |   |   |   |   |   |   |   |   W_ko <= 0
|   |   |   |   |   |   |   |   |   |   |   |   |   |   |   |   |   W_lalapitan <= 0: O (6.0/2.0)
|   |   |   |   |   |   |   |   |   |   |   |   |   |   |   |   |   W_lalapitan > 0: CD (2.0)
|   |   |   |   |   |   |   |   |   |   |   |   |   |   |   |   W_ko > 0: CH (2.0)
|   |   |   |   |   |   |   |   |   |   |   |   |   |   |   Length > 14
|   |   |   |   |   |   |   |   |   |   |   |   |   |   |   |   W_128.5 <= 0
|   |   |   |   |   |   |   |   |   |   |   |   |   |   |   |   |   W_sm <= 0
|   |   |   |   |   |   |   |   |   |   |   |   |   |   |   |   |   |   W_5am <= 0
|   |   |   |   |   |   |   |   |   |   |   |   |   |   |   |   |   |   |   W_could <= 0: CD (70.0)
|   |   |   |   |   |   |   |   |   |   |   |   |   |   |   |   |   |   |   W_could > 0
|   |   |   |   |   |   |   |   |   |   |   |   |   |   |   |   |   |   |   |   IsRetweet <= 0: CD (8.0)
|   |   |   |   |   |   |   |   |   |   |   |   |   |   |   |   |   |   |   |   IsRetweet > 0: O (2.0)
|   |   |   |   |   |   |   |   |   |   |   |   |   |   |   |   |   |   W_5am > 0
|   |   |   |   |   |   |   |   |   |   |   |   |   |   |   |   |   |   |   Length <= 19: O (2.0)
|   |   |   |   |   |   |   |   |   |   |   |   |   |   |   |   |   |   |   Length > 19: CD (5.0)
|   |   |   |   |   |   |   |   |   |   |   |   |   |   |   |   |   W_sm > 0: O (2.0)
|   |   |   |   |   |   |   |   |   |   |   |   |   |   |   |   W_128.5 > 0: D (2.0/1.0)
|   |   |   |   |   |   |   |   |   |   |   |   |   |   W_supertyphoon > 0
|   |   |   |   |   |   |   |   |   |   |   |   |   |   |   Length <= 16: CD (6.0/2.0)
|   |   |   |   |   |   |   |   |   |   |   |   |   |   |   Length > 16: CH (2.0)
|   |   |   |   |   |   |   |   |   |   |   |   |   W_mag-landfall > 0: O (3.0/1.0)
|   |   |   |   |   |   |   |   |   |   |   |   W_hanging > 0: O (3.0/1.0)
|   |   |   |   |   |   |   |   |   |   |   W_southeast > 0: O (6.0)
|   |   |   |   |   |   |   |   |   |   W_ahaha > 0: O (5.0)
|   |   |   |   |   |   |   |   |   W_kailan > 0
|   |   |   |   |   |   |   |   |   |   W_#hagupit <= 0: O (3.0/1.0)
|   |   |   |   |   |   |   |   |   |   W_#hagupit > 0: CH (2.0)
|   |   |   |   |   |   |   |   W_8pm > 0: CA (4.0/1.0)
|   |   |   |   |   |   |   W_komunikasyon > 0: CA (3.0)
|   |   |   |   |   |   W_linya > 0: CA (4.0)
|   |   |   |   W_28,000 > 0
|   |   |   |   |   IsRetweet <= 0: CD (13.0/3.0)
|   |   |   |   |   IsRetweet > 0
|   |   |   |   |   |   W_#hiritpanahon <= 0: CH (22.0/2.0)
|   |   |   |   |   |   W_#hiritpanahon > 0: O (8.0)
|   |   |   W_nakapasok > 0
|   |   |   |   W_+ <= 0
|   |   |   |   |   W_ofcs <= 0: O (25.0/1.0)
|   |   |   |   |   W_ofcs > 0: D (2.0)
|   |   |   |   W_+ > 0: D (2.0)
|   |   W_presyo > 0: O (26.0/1.0)
|   W_nananatiling > 0: O (62.0/1.0)

Number of Leaves  : 	92

Size of the tree : 	183


Time taken to build model: 8.45 seconds

=== Stratified cross-validation ===
=== Summary ===

Correctly Classified Instances        2139               92.8789 %
Incorrectly Classified Instances       164                7.1211 %
Kappa statistic                          0.8833
Mean absolute error                      0.0346
Root mean squared error                  0.1522
Relative absolute error                 14.0311 %
Root relative squared error             43.3487 %
Total Number of Instances             2303     

=== Detailed Accuracy By Class ===

               TP Rate   FP Rate   Precision   Recall  F-Measure   ROC Area  Class
                 0.959     0.031      0.959     0.959     0.959      0.985    CA
                 0.817     0.018      0.813     0.817     0.815      0.981    CD
                 0.651     0.003      0.854     0.651     0.739      0.903    CH
                 0.512     0.002      0.846     0.512     0.638      0.93     D
                 0.957     0.057      0.928     0.957     0.942      0.982    O
Weighted Avg.    0.929     0.04       0.928     0.929     0.927      0.98 

=== Confusion Matrix ===

   a   b   c   d   e   <-- classified as
 959  12   2   0  27 |   a = CA
  11 165   0   0  26 |   b = CD
   7   6  41   1   8 |   c = CH
   2   2   4  22  13 |   d = D
  21  18   1   3 952 |   e = O

