=== Run information ===

Scheme:weka.classifiers.trees.J48 -C 0.25 -M 2
Relation:     mario-marioruby-Combined-word-20-weka.filters.unsupervised.attribute.Remove-R1-5,9
Instances:    1365
Attributes:   324
[list of attributes omitted]
Test mode:split 60.0% train, remainder test

=== Classifier model (full training set) ===

J48 pruned tree
------------------

W_pswd <= 0
|   W_gusto <= 0
|   |   W_natuklap <= 0
|   |   |   W_ngaun <= 0
|   |   |   |   W_bagong <= 0
|   |   |   |   |   W_out <= 0
|   |   |   |   |   |   W_isinasagawa <= 0
|   |   |   |   |   |   |   W_salamat <= 0
|   |   |   |   |   |   |   |   IsHashtag <= 0
|   |   |   |   |   |   |   |   |   W_kaba <= 0
|   |   |   |   |   |   |   |   |   |   W_municipality <= 0
|   |   |   |   |   |   |   |   |   |   |   W_youscooper <= 0
|   |   |   |   |   |   |   |   |   |   |   |   W_nagpabuhat <= 0
|   |   |   |   |   |   |   |   |   |   |   |   |   W_towns <= 0
|   |   |   |   |   |   |   |   |   |   |   |   |   |   W_helpdesk <= 0
|   |   |   |   |   |   |   |   |   |   |   |   |   |   |   W_tumana <= 0
|   |   |   |   |   |   |   |   |   |   |   |   |   |   |   |   W_ngyon <= 0
|   |   |   |   |   |   |   |   |   |   |   |   |   |   |   |   |   W_motorista <= 0
|   |   |   |   |   |   |   |   |   |   |   |   |   |   |   |   |   |   W_countries <= 0
|   |   |   |   |   |   |   |   |   |   |   |   |   |   |   |   |   |   |   W_gumagabi <= 0
|   |   |   |   |   |   |   |   |   |   |   |   |   |   |   |   |   |   |   |   W_para <= 0
|   |   |   |   |   |   |   |   |   |   |   |   |   |   |   |   |   |   |   |   |   W_pamilya <= 0
|   |   |   |   |   |   |   |   |   |   |   |   |   |   |   |   |   |   |   |   |   |   W_just <= 0
|   |   |   |   |   |   |   |   |   |   |   |   |   |   |   |   |   |   |   |   |   |   |   IsRetweet <= 0
|   |   |   |   |   |   |   |   |   |   |   |   |   |   |   |   |   |   |   |   |   |   |   |   W_dulot <= 0
|   |   |   |   |   |   |   |   |   |   |   |   |   |   |   |   |   |   |   |   |   |   |   |   |   W_mabasa <= 0
|   |   |   |   |   |   |   |   |   |   |   |   |   |   |   |   |   |   |   |   |   |   |   |   |   |   W_tinupi <= 0: O (85.0/18.0)
|   |   |   |   |   |   |   |   |   |   |   |   |   |   |   |   |   |   |   |   |   |   |   |   |   |   W_tinupi > 0: CA (2.0)
|   |   |   |   |   |   |   |   |   |   |   |   |   |   |   |   |   |   |   |   |   |   |   |   |   W_mabasa > 0: CA (2.0)
|   |   |   |   |   |   |   |   |   |   |   |   |   |   |   |   |   |   |   |   |   |   |   |   W_dulot > 0: CA (2.0)
|   |   |   |   |   |   |   |   |   |   |   |   |   |   |   |   |   |   |   |   |   |   |   IsRetweet > 0
|   |   |   |   |   |   |   |   |   |   |   |   |   |   |   |   |   |   |   |   |   |   |   |   W_ilang <= 0
|   |   |   |   |   |   |   |   |   |   |   |   |   |   |   |   |   |   |   |   |   |   |   |   |   W_pahelp <= 0
|   |   |   |   |   |   |   |   |   |   |   |   |   |   |   |   |   |   |   |   |   |   |   |   |   |   Length <= 23
|   |   |   |   |   |   |   |   |   |   |   |   |   |   |   |   |   |   |   |   |   |   |   |   |   |   |   Length <= 11: D (2.0)
|   |   |   |   |   |   |   |   |   |   |   |   |   |   |   |   |   |   |   |   |   |   |   |   |   |   |   Length > 11
|   |   |   |   |   |   |   |   |   |   |   |   |   |   |   |   |   |   |   |   |   |   |   |   |   |   |   |   Length <= 19
|   |   |   |   |   |   |   |   |   |   |   |   |   |   |   |   |   |   |   |   |   |   |   |   |   |   |   |   |   Length <= 13: CA (3.0)
|   |   |   |   |   |   |   |   |   |   |   |   |   |   |   |   |   |   |   |   |   |   |   |   |   |   |   |   |   Length > 13
|   |   |   |   |   |   |   |   |   |   |   |   |   |   |   |   |   |   |   |   |   |   |   |   |   |   |   |   |   |   Length <= 15: O (2.0)
|   |   |   |   |   |   |   |   |   |   |   |   |   |   |   |   |   |   |   |   |   |   |   |   |   |   |   |   |   |   Length > 15
|   |   |   |   |   |   |   |   |   |   |   |   |   |   |   |   |   |   |   |   |   |   |   |   |   |   |   |   |   |   |   Length <= 18: CA (6.0/1.0)
|   |   |   |   |   |   |   |   |   |   |   |   |   |   |   |   |   |   |   |   |   |   |   |   |   |   |   |   |   |   |   Length > 18: O (3.0/1.0)
|   |   |   |   |   |   |   |   |   |   |   |   |   |   |   |   |   |   |   |   |   |   |   |   |   |   |   |   Length > 19: CA (12.0/1.0)
|   |   |   |   |   |   |   |   |   |   |   |   |   |   |   |   |   |   |   |   |   |   |   |   |   |   Length > 23: CH (3.0/1.0)
|   |   |   |   |   |   |   |   |   |   |   |   |   |   |   |   |   |   |   |   |   |   |   |   |   W_pahelp > 0: O (2.0)
|   |   |   |   |   |   |   |   |   |   |   |   |   |   |   |   |   |   |   |   |   |   |   |   W_ilang > 0: O (5.0/1.0)
|   |   |   |   |   |   |   |   |   |   |   |   |   |   |   |   |   |   |   |   |   |   W_just > 0: O (6.0)
|   |   |   |   |   |   |   |   |   |   |   |   |   |   |   |   |   |   |   |   |   W_pamilya > 0: O (14.0)
|   |   |   |   |   |   |   |   |   |   |   |   |   |   |   |   |   |   |   |   W_para > 0: CA (7.0)
|   |   |   |   |   |   |   |   |   |   |   |   |   |   |   |   |   |   |   W_gumagabi > 0: D (4.0/2.0)
|   |   |   |   |   |   |   |   |   |   |   |   |   |   |   |   |   |   W_countries > 0: CA (4.0)
|   |   |   |   |   |   |   |   |   |   |   |   |   |   |   |   |   W_motorista > 0: CA (5.0/2.0)
|   |   |   |   |   |   |   |   |   |   |   |   |   |   |   |   W_ngyon > 0
|   |   |   |   |   |   |   |   |   |   |   |   |   |   |   |   |   W_kong <= 0: CA (2.0)
|   |   |   |   |   |   |   |   |   |   |   |   |   |   |   |   |   W_kong > 0: CH (2.0)
|   |   |   |   |   |   |   |   |   |   |   |   |   |   |   W_tumana > 0: CH (4.0/1.0)
|   |   |   |   |   |   |   |   |   |   |   |   |   |   W_helpdesk > 0: CH (4.0/1.0)
|   |   |   |   |   |   |   |   |   |   |   |   |   W_towns > 0
|   |   |   |   |   |   |   |   |   |   |   |   |   |   W_silangan <= 0
|   |   |   |   |   |   |   |   |   |   |   |   |   |   |   W_ilang <= 0
|   |   |   |   |   |   |   |   |   |   |   |   |   |   |   |   IsUrl <= 0
|   |   |   |   |   |   |   |   |   |   |   |   |   |   |   |   |   W_ipamigay <= 0
|   |   |   |   |   |   |   |   |   |   |   |   |   |   |   |   |   |   W_tinatayang <= 0
|   |   |   |   |   |   |   |   |   |   |   |   |   |   |   |   |   |   |   IsRetweet <= 0
|   |   |   |   |   |   |   |   |   |   |   |   |   |   |   |   |   |   |   |   W_compound <= 0: O (253.0/75.0)
|   |   |   |   |   |   |   |   |   |   |   |   |   |   |   |   |   |   |   |   W_compound > 0: CA (4.0)
|   |   |   |   |   |   |   |   |   |   |   |   |   |   |   |   |   |   |   IsRetweet > 0
|   |   |   |   |   |   |   |   |   |   |   |   |   |   |   |   |   |   |   |   W_reinforce <= 0
|   |   |   |   |   |   |   |   |   |   |   |   |   |   |   |   |   |   |   |   |   W_pamilya <= 0
|   |   |   |   |   |   |   |   |   |   |   |   |   |   |   |   |   |   |   |   |   |   W_towns <= 1
|   |   |   |   |   |   |   |   |   |   |   |   |   |   |   |   |   |   |   |   |   |   |   W_including <= 0
|   |   |   |   |   |   |   |   |   |   |   |   |   |   |   |   |   |   |   |   |   |   |   |   W_contact <= 0
|   |   |   |   |   |   |   |   |   |   |   |   |   |   |   |   |   |   |   |   |   |   |   |   |   Length <= 12: O (7.0/1.0)
|   |   |   |   |   |   |   |   |   |   |   |   |   |   |   |   |   |   |   |   |   |   |   |   |   Length > 12: CA (32.0/11.0)
|   |   |   |   |   |   |   |   |   |   |   |   |   |   |   |   |   |   |   |   |   |   |   |   W_contact > 0
|   |   |   |   |   |   |   |   |   |   |   |   |   |   |   |   |   |   |   |   |   |   |   |   |   Length <= 16: CA (6.0)
|   |   |   |   |   |   |   |   |   |   |   |   |   |   |   |   |   |   |   |   |   |   |   |   |   Length > 16: O (6.0)
|   |   |   |   |   |   |   |   |   |   |   |   |   |   |   |   |   |   |   |   |   |   |   W_including > 0: O (2.0)
|   |   |   |   |   |   |   |   |   |   |   |   |   |   |   |   |   |   |   |   |   |   W_towns > 1: O (3.0)
|   |   |   |   |   |   |   |   |   |   |   |   |   |   |   |   |   |   |   |   |   W_pamilya > 0: O (47.0/1.0)
|   |   |   |   |   |   |   |   |   |   |   |   |   |   |   |   |   |   |   |   W_reinforce > 0: CD (3.0)
|   |   |   |   |   |   |   |   |   |   |   |   |   |   |   |   |   |   W_tinatayang > 0: O (11.0/1.0)
|   |   |   |   |   |   |   |   |   |   |   |   |   |   |   |   |   W_ipamigay > 0: O (12.0/1.0)
|   |   |   |   |   |   |   |   |   |   |   |   |   |   |   |   IsUrl > 0
|   |   |   |   |   |   |   |   |   |   |   |   |   |   |   |   |   W_istruktura <= 0
|   |   |   |   |   |   |   |   |   |   |   |   |   |   |   |   |   |   W_just <= 0
|   |   |   |   |   |   |   |   |   |   |   |   |   |   |   |   |   |   |   W_mauubusan <= 0
|   |   |   |   |   |   |   |   |   |   |   |   |   |   |   |   |   |   |   |   W_more <= 0
|   |   |   |   |   |   |   |   |   |   |   |   |   |   |   |   |   |   |   |   |   W_pamilya <= 0
|   |   |   |   |   |   |   |   |   |   |   |   |   |   |   |   |   |   |   |   |   |   Length <= 9: O (10.0)
|   |   |   |   |   |   |   |   |   |   |   |   |   |   |   |   |   |   |   |   |   |   Length > 9: CA (77.0/7.0)
|   |   |   |   |   |   |   |   |   |   |   |   |   |   |   |   |   |   |   |   |   W_pamilya > 0: O (9.0/2.0)
|   |   |   |   |   |   |   |   |   |   |   |   |   |   |   |   |   |   |   |   W_more > 0: O (2.0)
|   |   |   |   |   |   |   |   |   |   |   |   |   |   |   |   |   |   |   W_mauubusan > 0: O (2.0)
|   |   |   |   |   |   |   |   |   |   |   |   |   |   |   |   |   |   W_just > 0: O (4.0)
|   |   |   |   |   |   |   |   |   |   |   |   |   |   |   |   |   W_istruktura > 0: O (4.0)
|   |   |   |   |   |   |   |   |   |   |   |   |   |   |   W_ilang > 0: O (39.0/4.0)
|   |   |   |   |   |   |   |   |   |   |   |   |   |   W_silangan > 0: O (14.0)
|   |   |   |   |   |   |   |   |   |   |   |   W_nagpabuhat > 0
|   |   |   |   |   |   |   |   |   |   |   |   |   W_declares <= 0
|   |   |   |   |   |   |   |   |   |   |   |   |   |   IsUrl <= 0: O (2.0)
|   |   |   |   |   |   |   |   |   |   |   |   |   |   IsUrl > 0: CA (11.0/1.0)
|   |   |   |   |   |   |   |   |   |   |   |   |   W_declares > 0
|   |   |   |   |   |   |   |   |   |   |   |   |   |   W_contact <= 0: CD (2.0)
|   |   |   |   |   |   |   |   |   |   |   |   |   |   W_contact > 0: CH (2.0)
|   |   |   |   |   |   |   |   |   |   |   W_youscooper > 0
|   |   |   |   |   |   |   |   |   |   |   |   W_declares <= 0
|   |   |   |   |   |   |   |   |   |   |   |   |   W_goods <= 0
|   |   |   |   |   |   |   |   |   |   |   |   |   |   W_towns <= 0
|   |   |   |   |   |   |   |   |   |   |   |   |   |   |   IsRetweet <= 0: O (3.0)
|   |   |   |   |   |   |   |   |   |   |   |   |   |   |   IsRetweet > 0: CA (2.0)
|   |   |   |   |   |   |   |   |   |   |   |   |   |   W_towns > 0: CA (9.0)
|   |   |   |   |   |   |   |   |   |   |   |   |   W_goods > 0: CD (2.0)
|   |   |   |   |   |   |   |   |   |   |   |   W_declares > 0: CD (2.0)
|   |   |   |   |   |   |   |   |   |   W_municipality > 0: CA (21.0/1.0)
|   |   |   |   |   |   |   |   |   W_kaba > 0
|   |   |   |   |   |   |   |   |   |   W_towns <= 0: CH (11.0/1.0)
|   |   |   |   |   |   |   |   |   |   W_towns > 0: CA (5.0)
|   |   |   |   |   |   |   |   IsHashtag > 0
|   |   |   |   |   |   |   |   |   W_preso <= 0
|   |   |   |   |   |   |   |   |   |   W_post <= 0
|   |   |   |   |   |   |   |   |   |   |   W_pamilya <= 0
|   |   |   |   |   |   |   |   |   |   |   |   W_bandang <= 0
|   |   |   |   |   |   |   |   |   |   |   |   |   Length <= 13
|   |   |   |   |   |   |   |   |   |   |   |   |   |   IsUrl <= 0: CA (4.0/1.0)
|   |   |   |   |   |   |   |   |   |   |   |   |   |   IsUrl > 0: D (12.0/4.0)
|   |   |   |   |   |   |   |   |   |   |   |   |   Length > 13
|   |   |   |   |   |   |   |   |   |   |   |   |   |   W_ilang <= 0
|   |   |   |   |   |   |   |   |   |   |   |   |   |   |   W_downed <= 0
|   |   |   |   |   |   |   |   |   |   |   |   |   |   |   |   W_sagip <= 0: CA (76.0/10.0)
|   |   |   |   |   |   |   |   |   |   |   |   |   |   |   |   W_sagip > 0: O (6.0)
|   |   |   |   |   |   |   |   |   |   |   |   |   |   |   W_downed > 0: CA (9.0)
|   |   |   |   |   |   |   |   |   |   |   |   |   |   W_ilang > 0: O (3.0/1.0)
|   |   |   |   |   |   |   |   |   |   |   |   W_bandang > 0
|   |   |   |   |   |   |   |   |   |   |   |   |   Length <= 17
|   |   |   |   |   |   |   |   |   |   |   |   |   |   IsUrl <= 0: CA (2.0)
|   |   |   |   |   |   |   |   |   |   |   |   |   |   IsUrl > 0
|   |   |   |   |   |   |   |   |   |   |   |   |   |   |   Length <= 12: CA (2.0)
|   |   |   |   |   |   |   |   |   |   |   |   |   |   |   Length > 12: O (2.0)
|   |   |   |   |   |   |   |   |   |   |   |   |   Length > 17: D (3.0)
|   |   |   |   |   |   |   |   |   |   |   W_pamilya > 0: O (3.0)
|   |   |   |   |   |   |   |   |   |   W_post > 0: O (4.0)
|   |   |   |   |   |   |   |   |   W_preso > 0: CD (9.0)
|   |   |   |   |   |   |   W_salamat > 0
|   |   |   |   |   |   |   |   W_bubong <= 0
|   |   |   |   |   |   |   |   |   W_kong <= 0
|   |   |   |   |   |   |   |   |   |   W_bandang <= 0: CA (65.0)
|   |   |   |   |   |   |   |   |   |   W_bandang > 0
|   |   |   |   |   |   |   |   |   |   |   W_bandang <= 1: CH (2.0/1.0)
|   |   |   |   |   |   |   |   |   |   |   W_bandang > 1: O (2.0)
|   |   |   |   |   |   |   |   |   W_kong > 0: CH (2.0)
|   |   |   |   |   |   |   |   W_bubong > 0: CD (2.0/1.0)
|   |   |   |   |   |   W_isinasagawa > 0
|   |   |   |   |   |   |   W_bandang <= 0: CH (18.0)
|   |   |   |   |   |   |   W_bandang > 0: CD (2.0)
|   |   |   |   |   W_out > 0: CA (55.0/1.0)
|   |   |   |   W_bagong > 0: CA (81.0/1.0)
|   |   |   W_ngaun > 0
|   |   |   |   W_weather <= 0
|   |   |   |   |   W_towns <= 0
|   |   |   |   |   |   W_apektado <= 0
|   |   |   |   |   |   |   Length <= 16: CA (3.0)
|   |   |   |   |   |   |   Length > 16: CD (3.0)
|   |   |   |   |   |   W_apektado > 0: CA (2.0)
|   |   |   |   |   W_towns > 0: CA (61.0/1.0)
|   |   |   |   W_weather > 0: CD (4.0)
|   |   W_natuklap > 0
|   |   |   IsUrl <= 0: O (6.0)
|   |   |   IsUrl > 0
|   |   |   |   W_kong <= 0
|   |   |   |   |   W_lines <= 0
|   |   |   |   |   |   W_nagsimula <= 0
|   |   |   |   |   |   |   Length <= 21
|   |   |   |   |   |   |   |   W_blvd <= 0: CA (5.0/2.0)
|   |   |   |   |   |   |   |   W_blvd > 0
|   |   |   |   |   |   |   |   |   IsRetweet <= 0: D (3.0)
|   |   |   |   |   |   |   |   |   IsRetweet > 0: CH (3.0/1.0)
|   |   |   |   |   |   |   Length > 21: D (24.0/1.0)
|   |   |   |   |   |   W_nagsimula > 0
|   |   |   |   |   |   |   IsHashtag <= 0: CA (7.0)
|   |   |   |   |   |   |   IsHashtag > 0: D (2.0)
|   |   |   |   |   W_lines > 0: O (2.0)
|   |   |   |   W_kong > 0: O (3.0)
|   W_gusto > 0: CH (46.0/1.0)
W_pswd > 0: CD (27.0/1.0)

Number of Leaves  : 	94

Size of the tree : 	187


Time taken to build model: 2.01 seconds

=== Evaluation on test split ===
=== Summary ===

Correctly Classified Instances         415               76.0073 %
Incorrectly Classified Instances       131               23.9927 %
Kappa statistic                          0.6107
Mean absolute error                      0.1241
Root mean squared error                  0.2647
Relative absolute error                 49.5583 %
Root relative squared error             74.8417 %
Total Number of Instances              546     

=== Detailed Accuracy By Class ===

               TP Rate   FP Rate   Precision   Recall  F-Measure   ROC Area  Class
                 0.5       0.004      0.846     0.5       0.629      0.855    D
                 0.714     0.002      0.938     0.714     0.811      0.961    CD
                 0.658     0.014      0.781     0.658     0.714      0.865    CH
                 0.744     0.16       0.807     0.744     0.774      0.874    CA
                 0.831     0.221      0.696     0.831     0.758      0.863    O
Weighted Avg.    0.76      0.161      0.77      0.76      0.759      0.872

=== Confusion Matrix ===

   a   b   c   d   e   <-- classified as
  11   0   1   7   3 |   a = D
   0  15   0   4   2 |   b = CD
   0   0  25   5   8 |   c = CH
   0   1   3 192  62 |   d = CA
   2   0   3  30 172 |   e = O

