=== Run information ===

Scheme:weka.classifiers.trees.J48 -C 0.25 -M 2
Relation:     mario-balance-weka.filters.unsupervised.attribute.Remove-R1-5,9
Instances:    235
Attributes:   111
[list of attributes omitted]
Test mode:10-fold cross-validation

=== Classifier model (full training set) ===

J48 pruned tree
------------------

W_limandaang <= 0
|   W_kong <= 0
|   |   W_kaba <= 0
|   |   |   W_estero <= 0
|   |   |   |   W_pahelp <= 0
|   |   |   |   |   W_nangka <= 0
|   |   |   |   |   |   W_patuloy <= 0
|   |   |   |   |   |   |   W_extension <= 0
|   |   |   |   |   |   |   |   IsUrl <= 0
|   |   |   |   |   |   |   |   |   W_tayo <= 0
|   |   |   |   |   |   |   |   |   |   W_masilungan <= 0: O (38.0/8.0)
|   |   |   |   |   |   |   |   |   |   W_masilungan > 0: CA (4.0/1.0)
|   |   |   |   |   |   |   |   |   W_tayo > 0: CA (3.0)
|   |   |   |   |   |   |   |   IsUrl > 0
|   |   |   |   |   |   |   |   |   W_wala <= 0
|   |   |   |   |   |   |   |   |   |   W_weather <= 0
|   |   |   |   |   |   |   |   |   |   |   W_bagyong <= 0
|   |   |   |   |   |   |   |   |   |   |   |   W_blogger <= 0
|   |   |   |   |   |   |   |   |   |   |   |   |   W_kung <= 0
|   |   |   |   |   |   |   |   |   |   |   |   |   |   W_kabayani <= 0
|   |   |   |   |   |   |   |   |   |   |   |   |   |   |   W_good <= 0
|   |   |   |   |   |   |   |   |   |   |   |   |   |   |   |   W_pong <= 0
|   |   |   |   |   |   |   |   |   |   |   |   |   |   |   |   |   W_elem <= 0
|   |   |   |   |   |   |   |   |   |   |   |   |   |   |   |   |   |   W_church <= 0
|   |   |   |   |   |   |   |   |   |   |   |   |   |   |   |   |   |   |   W_nabaha <= 0
|   |   |   |   |   |   |   |   |   |   |   |   |   |   |   |   |   |   |   |   W_dry <= 0
|   |   |   |   |   |   |   |   |   |   |   |   |   |   |   |   |   |   |   |   |   W_i <= 0
|   |   |   |   |   |   |   |   |   |   |   |   |   |   |   |   |   |   |   |   |   |   Length <= 13
|   |   |   |   |   |   |   |   |   |   |   |   |   |   |   |   |   |   |   |   |   |   |   IsHashtag <= 0
|   |   |   |   |   |   |   |   |   |   |   |   |   |   |   |   |   |   |   |   |   |   |   |   IsRetweet <= 0: CA (6.0/2.0)
|   |   |   |   |   |   |   |   |   |   |   |   |   |   |   |   |   |   |   |   |   |   |   |   IsRetweet > 0: D (4.0/2.0)
|   |   |   |   |   |   |   |   |   |   |   |   |   |   |   |   |   |   |   |   |   |   |   IsHashtag > 0: D (7.0)
|   |   |   |   |   |   |   |   |   |   |   |   |   |   |   |   |   |   |   |   |   |   Length > 13
|   |   |   |   |   |   |   |   |   |   |   |   |   |   |   |   |   |   |   |   |   |   |   W_sir <= 0
|   |   |   |   |   |   |   |   |   |   |   |   |   |   |   |   |   |   |   |   |   |   |   |   IsRetweet <= 0
|   |   |   |   |   |   |   |   |   |   |   |   |   |   |   |   |   |   |   |   |   |   |   |   |   IsHashtag <= 0: O (9.0/4.0)
|   |   |   |   |   |   |   |   |   |   |   |   |   |   |   |   |   |   |   |   |   |   |   |   |   IsHashtag > 0: CA (5.0/1.0)
|   |   |   |   |   |   |   |   |   |   |   |   |   |   |   |   |   |   |   |   |   |   |   |   IsRetweet > 0
|   |   |   |   |   |   |   |   |   |   |   |   |   |   |   |   |   |   |   |   |   |   |   |   |   Length <= 25: CA (15.0/3.0)
|   |   |   |   |   |   |   |   |   |   |   |   |   |   |   |   |   |   |   |   |   |   |   |   |   Length > 25: CH (4.0/2.0)
|   |   |   |   |   |   |   |   |   |   |   |   |   |   |   |   |   |   |   |   |   |   |   W_sir > 0
|   |   |   |   |   |   |   |   |   |   |   |   |   |   |   |   |   |   |   |   |   |   |   |   Length <= 25: CA (2.0/1.0)
|   |   |   |   |   |   |   |   |   |   |   |   |   |   |   |   |   |   |   |   |   |   |   |   Length > 25: D (2.0)
|   |   |   |   |   |   |   |   |   |   |   |   |   |   |   |   |   |   |   |   |   W_i > 0: D (2.0)
|   |   |   |   |   |   |   |   |   |   |   |   |   |   |   |   |   |   |   |   W_dry > 0: D (3.0/1.0)
|   |   |   |   |   |   |   |   |   |   |   |   |   |   |   |   |   |   |   W_nabaha > 0: D (3.0)
|   |   |   |   |   |   |   |   |   |   |   |   |   |   |   |   |   |   W_church > 0: D (3.0)
|   |   |   |   |   |   |   |   |   |   |   |   |   |   |   |   |   W_elem > 0
|   |   |   |   |   |   |   |   |   |   |   |   |   |   |   |   |   |   Length <= 19: CH (4.0/2.0)
|   |   |   |   |   |   |   |   |   |   |   |   |   |   |   |   |   |   Length > 19: D (8.0)
|   |   |   |   |   |   |   |   |   |   |   |   |   |   |   |   W_pong > 0: D (4.0)
|   |   |   |   |   |   |   |   |   |   |   |   |   |   |   W_good > 0: D (4.0)
|   |   |   |   |   |   |   |   |   |   |   |   |   |   W_kabayani > 0: D (9.0)
|   |   |   |   |   |   |   |   |   |   |   |   |   W_kung > 0: O (3.0/1.0)
|   |   |   |   |   |   |   |   |   |   |   |   W_blogger > 0: CA (2.0)
|   |   |   |   |   |   |   |   |   |   |   W_bagyong > 0: CA (2.0)
|   |   |   |   |   |   |   |   |   |   W_weather > 0: O (2.0)
|   |   |   |   |   |   |   |   |   W_wala > 0: CD (3.0/2.0)
|   |   |   |   |   |   |   W_extension > 0: CH (4.0)
|   |   |   |   |   |   W_patuloy > 0: CH (7.0)
|   |   |   |   |   W_nangka > 0: CH (9.0)
|   |   |   |   W_pahelp > 0: CH (16.0/1.0)
|   |   |   W_estero > 0: CD (6.0/2.0)
|   |   W_kaba > 0
|   |   |   W_sir <= 0: CD (8.0/1.0)
|   |   |   W_sir > 0: CH (3.0/1.0)
|   W_kong > 0: CD (11.0)
W_limandaang > 0: CD (20.0/1.0)

Number of Leaves  : 	35

Size of the tree : 	69


Time taken to build model: 0.41 seconds

=== Stratified cross-validation ===
=== Summary ===

Correctly Classified Instances         147               62.5532 %
Incorrectly Classified Instances        88               37.4468 %
Kappa statistic                          0.5319
Mean absolute error                      0.1571
Root mean squared error                  0.3285
Relative absolute error                 49.082  %
Root relative squared error             82.0966 %
Total Number of Instances              235     

=== Detailed Accuracy By Class ===

               TP Rate   FP Rate   Precision   Recall  F-Measure   ROC Area  Class
                 0.426     0.186      0.364     0.426     0.392      0.715    CA
                 0.766     0.037      0.837     0.766     0.8        0.897    CD
                 0.553     0.112      0.553     0.553     0.553      0.826    O
                 0.638     0.048      0.769     0.638     0.698      0.909    D
                 0.745     0.085      0.686     0.745     0.714      0.862    CH
Weighted Avg.    0.626     0.094      0.642     0.626     0.631      0.842

=== Confusion Matrix ===

  a  b  c  d  e   <-- classified as
 20  2 16  6  3 |  a = CA
  3 36  2  0  6 |  b = CD
 17  1 26  0  3 |  c = O
 11  0  2 30  4 |  d = D
  4  4  1  3 35 |  e = CH

